digraph Tree {
node [shape=box, style="filled, rounded", color="black", fontname=helvetica] ;
edge [fontname=helvetica] ;
0 [label="PLT_PROC <= 0.047\nentropy = 1.0\nsamples = 15613\nvalue = [7806.5, 7806.5]\nclass = AUN NO SATISFACTORIO", fillcolor="#ffffff"] ;
1 [label="PRO_LIC <= 9.5\nentropy = 0.875\nsamples = 5272\nvalue = [3784.051, 1583.914]\nclass = AUN NO SATISFACTORIO", fillcolor="#f0b68c"] ;
0 -> 1 [labeldistance=2.5, labelangle=45, headlabel="True"] ;
2 [label="PLT_PROC <= 0.023\nentropy = 0.838\nsamples = 4880\nvalue = [3648.122, 1332.864]\nclass = AUN NO SATISFACTORIO", fillcolor="#eeaf81"] ;
1 -> 2 ;
3 [label="TIPO_EXA <= 0.018\nentropy = 0.724\nsamples = 2358\nvalue = [1934.372, 486.768]\nclass = AUN NO SATISFACTORIO", fillcolor="#eca16b"] ;
2 -> 3 ;
4 [label="TIPO_EXA <= 0.012\nentropy = 0.893\nsamples = 435\nvalue = [305.317, 137.023]\nclass = AUN NO SATISFACTORIO", fillcolor="#f1ba92"] ;
3 -> 4 ;
5 [label="(...)", fillcolor="#C0C0C0"] ;
4 -> 5 ;
30 [label="(...)", fillcolor="#C0C0C0"] ;
4 -> 30 ;
49 [label="PRO_LIC <= 8.5\nentropy = 0.673\nsamples = 1923\nvalue = [1629.055, 349.745]\nclass = AUN NO SATISFACTORIO", fillcolor="#eb9c64"] ;
3 -> 49 ;
50 [label="(...)", fillcolor="#C0C0C0"] ;
49 -> 50 ;
71 [label="(...)", fillcolor="#C0C0C0"] ;
49 -> 71 ;
120 [label="TIPO_EXA <= 0.012\nentropy = 0.915\nsamples = 2522\nvalue = [1713.749, 846.095]\nclass = AUN NO SATISFACTORIO", fillcolor="#f2bf9b"] ;
2 -> 120 ;
121 [label="FOME_EOAD <= 0.5\nentropy = 0.543\nsamples = 542\nvalue = [490.39, 69.949]\nclass = AUN NO SATISFACTORIO", fillcolor="#e99355"] ;
120 -> 121 ;
122 [label="(...)", fillcolor="#C0C0C0"] ;
121 -> 122 ;
123 [label="(...)", fillcolor="#C0C0C0"] ;
121 -> 123 ;
138 [label="PLT_PROC <= 0.025\nentropy = 0.964\nsamples = 1980\nvalue = [1223.36, 776.146]\nclass = AUN NO SATISFACTORIO", fillcolor="#f5d1b7"] ;
120 -> 138 ;
139 [label="(...)", fillcolor="#C0C0C0"] ;
138 -> 139 ;
152 [label="(...)", fillcolor="#C0C0C0"] ;
138 -> 152 ;
211 [label="FOPR_CLEX <= 0.5\nentropy = 0.935\nsamples = 392\nvalue = [135.929, 251.05]\nclass = SATISFACTORIO", fillcolor="#a4d2f3"] ;
1 -> 211 ;
212 [label="MAE_RDE <= 0.83\nentropy = 0.891\nsamples = 52\nvalue = [36.596, 16.289]\nclass = AUN NO SATISFACTORIO", fillcolor="#f1b991"] ;
211 -> 212 ;
213 [label="TIPO_EXA <= 0.045\nentropy = 0.967\nsamples = 41\nvalue = [25.095, 16.289]\nclass = AUN NO SATISFACTORIO", fillcolor="#f6d3ba"] ;
212 -> 213 ;
214 [label="(...)", fillcolor="#C0C0C0"] ;
213 -> 214 ;
215 [label="(...)", fillcolor="#C0C0C0"] ;
213 -> 215 ;
220 [label="entropy = -0.0\nsamples = 11\nvalue = [11.502, 0.0]\nclass = AUN NO SATISFACTORIO", fillcolor="#e58139"] ;
212 -> 220 ;
221 [label="NIV_EDU <= 0.192\nentropy = 0.878\nsamples = 340\nvalue = [99.333, 234.76]\nclass = SATISFACTORIO", fillcolor="#8dc6f0"] ;
211 -> 221 ;
222 [label="CUARTOS <= 0.315\nentropy = 0.943\nsamples = 21\nvalue = [13.593, 7.666]\nclass = AUN NO SATISFACTORIO", fillcolor="#f4c8a9"] ;
221 -> 222 ;
223 [label="(...)", fillcolor="#C0C0C0"] ;
222 -> 223 ;
224 [label="(...)", fillcolor="#C0C0C0"] ;
222 -> 224 ;
225 [label="COM_ESAE <= 0.5\nentropy = 0.847\nsamples = 319\nvalue = [85.74, 227.095]\nclass = SATISFACTORIO", fillcolor="#84c2ef"] ;
221 -> 225 ;
226 [label="(...)", fillcolor="#C0C0C0"] ;
225 -> 226 ;
239 [label="(...)", fillcolor="#C0C0C0"] ;
225 -> 239 ;
260 [label="PRO_LIC <= 8.5\nentropy = 0.966\nsamples = 10341\nvalue = [4022.449, 6222.586]\nclass = SATISFACTORIO", fillcolor="#b9dcf6"] ;
0 -> 260 [labeldistance=2.5, labelangle=-45, headlabel="False"] ;
261 [label="SEXO <= 0.5\nentropy = 0.993\nsamples = 3155\nvalue = [1737.798, 1430.601]\nclass = AUN NO SATISFACTORIO", fillcolor="#fae9dc"] ;
260 -> 261 ;
262 [label="TIPO_EXA <= 0.006\nentropy = 0.999\nsamples = 1872\nvalue = [909.678, 960.122]\nclass = SATISFACTORIO", fillcolor="#f5fafe"] ;
261 -> 262 ;
263 [label="FOPR_LIMP <= 3.0\nentropy = 0.82\nsamples = 99\nvalue = [75.284, 25.872]\nclass = AUN NO SATISFACTORIO", fillcolor="#eeac7d"] ;
262 -> 263 ;
264 [label="(...)", fillcolor="#C0C0C0"] ;
263 -> 264 ;
277 [label="(...)", fillcolor="#C0C0C0"] ;
263 -> 277 ;
278 [label="RAZ_RAPT <= 0.5\nentropy = 0.998\nsamples = 1773\nvalue = [834.394, 934.25]\nclass = SATISFACTORIO", fillcolor="#eaf5fc"] ;
262 -> 278 ;
279 [label="(...)", fillcolor="#C0C0C0"] ;
278 -> 279 ;
306 [label="(...)", fillcolor="#C0C0C0"] ;
278 -> 306 ;
351 [label="PLT_PROC <= 0.158\nentropy = 0.945\nsamples = 1283\nvalue = [828.121, 470.479]\nclass = AUN NO SATISFACTORIO", fillcolor="#f4c9a9"] ;
261 -> 351 ;
352 [label="PRO_LIC <= 7.5\nentropy = 0.909\nsamples = 870\nvalue = [597.041, 286.503]\nclass = AUN NO SATISFACTORIO", fillcolor="#f1bd98"] ;
351 -> 352 ;
353 [label="(...)", fillcolor="#C0C0C0"] ;
352 -> 353 ;
356 [label="(...)", fillcolor="#C0C0C0"] ;
352 -> 356 ;
383 [label="ESC_PAD <= 0.115\nentropy = 0.991\nsamples = 413\nvalue = [231.079, 183.975]\nclass = AUN NO SATISFACTORIO", fillcolor="#fae5d7"] ;
351 -> 383 ;
384 [label="(...)", fillcolor="#C0C0C0"] ;
383 -> 384 ;
397 [label="(...)", fillcolor="#C0C0C0"] ;
383 -> 397 ;
418 [label="PRO_LIC <= 9.5\nentropy = 0.907\nsamples = 7186\nvalue = [2284.651, 4791.986]\nclass = SATISFACTORIO", fillcolor="#97ccf1"] ;
260 -> 418 ;
419 [label="SIT_LAB <= 0.83\nentropy = 0.935\nsamples = 6222\nvalue = [2158.132, 3984.218]\nclass = SATISFACTORIO", fillcolor="#a4d2f3"] ;
418 -> 419 ;
420 [label="SEXO <= 0.5\nentropy = 0.975\nsamples = 3332\nvalue = [1348.833, 1956.656]\nclass = SATISFACTORIO", fillcolor="#c1e1f7"] ;
419 -> 420 ;
421 [label="(...)", fillcolor="#C0C0C0"] ;
420 -> 421 ;
464 [label="(...)", fillcolor="#C0C0C0"] ;
420 -> 464 ;
515 [label="SEMA_TRAB <= 0.495\nentropy = 0.863\nsamples = 2890\nvalue = [809.3, 2027.563]\nclass = SATISFACTORIO", fillcolor="#88c4ef"] ;
419 -> 515 ;
516 [label="(...)", fillcolor="#C0C0C0"] ;
515 -> 516 ;
553 [label="(...)", fillcolor="#C0C0C0"] ;
515 -> 553 ;
584 [label="TIPO_EXA <= 0.069\nentropy = 0.572\nsamples = 964\nvalue = [126.518, 807.767]\nclass = SATISFACTORIO", fillcolor="#58ace9"] ;
418 -> 584 ;
585 [label="PRPF_AACA <= 4.5\nentropy = 0.462\nsamples = 741\nvalue = [70.056, 645.83]\nclass = SATISFACTORIO", fillcolor="#4ea8e8"] ;
584 -> 585 ;
586 [label="(...)", fillcolor="#C0C0C0"] ;
585 -> 586 ;
603 [label="(...)", fillcolor="#C0C0C0"] ;
585 -> 603 ;
622 [label="MAE_RET <= 0.495\nentropy = 0.825\nsamples = 223\nvalue = [56.463, 161.937]\nclass = SATISFACTORIO", fillcolor="#7ebfee"] ;
584 -> 622 ;
623 [label="(...)", fillcolor="#C0C0C0"] ;
622 -> 623 ;
626 [label="(...)", fillcolor="#C0C0C0"] ;
622 -> 626 ;
}